<?xml version="1.0"?>
<opencv_storage>
<stage10>
  <maxWeakCount>12</maxWeakCount>
  <stageThreshold>-1.3973087072372437e+00</stageThreshold>
  <weakClassifiers>
    <_>
      <internalNodes>
        0 -1 14240 8.3999745547771454e-02</internalNodes>
      <leafValues>
        -6.6666668653488159e-01 3.3980581164360046e-01</leafValues></_>
    <_>
      <internalNodes>
        0 -1 159806 5.8943340554833412e-03</internalNodes>
      <leafValues>
        -3.3367717266082764e-01 3.3235019445419312e-01</leafValues></_>
    <_>
      <internalNodes>
        0 -1 5838 1.5542560722678900e-03</internalNodes>
      <leafValues>
        1.0109344869852066e-01 -9.4391447305679321e-01</leafValues></_>
    <_>
      <internalNodes>
        0 -1 107481 1.5600749291479588e-02</internalNodes>
      <leafValues>
        -1.1812251061201096e-01 7.9591119289398193e-01</leafValues></_>
    <_>
      <internalNodes>
        0 -1 5897 1.7007160931825638e-03</internalNodes>
      <leafValues>
        -4.6473073959350586e-01 1.8593522906303406e-01</leafValues></_>
    <_>
      <internalNodes>
        0 -1 19587 -5.1345350220799446e-03</internalNodes>
      <leafValues>
        7.7922970056533813e-01 -1.3169583678245544e-01</leafValues></_>
    <_>
      <internalNodes>
        0 -1 2178 3.9412071928381920e-03</internalNodes>
      <leafValues>
        -2.4888946115970612e-01 3.5573926568031311e-01</leafValues></_>
    <_>
      <internalNodes>
        0 -1 20266 1.1796646285802126e-03</internalNodes>
      <leafValues>
        1.6315832734107971e-01 -6.5697616338729858e-01</leafValues></_>
    <_>
      <internalNodes>
        0 -1 11552 2.8253961354494095e-02</internalNodes>
      <leafValues>
        9.5906548202037811e-02 -7.2098171710968018e-01</leafValues></_>
    <_>
      <internalNodes>
        0 -1 22348 -6.7363701760768890e-02</internalNodes>
      <leafValues>
        -9.4299399852752686e-01 7.5738467276096344e-02</leafValues></_>
    <_>
      <internalNodes>
        0 -1 99545 -4.5405901968479156e-02</internalNodes>
      <leafValues>
        -1. 7.6544165611267090e-02</leafValues></_>
    <_>
      <internalNodes>
        0 -1 6023 -8.8862199336290359e-03</internalNodes>
      <leafValues>
        -9.2468380928039551e-01 5.4032731801271439e-02</leafValues></_></weakClassifiers></stage10>
</opencv_storage>
