<?xml version="1.0"?>
<opencv_storage>
<stage11>
  <maxWeakCount>11</maxWeakCount>
  <stageThreshold>-1.3383598327636719e+00</stageThreshold>
  <weakClassifiers>
    <_>
      <internalNodes>
        0 -1 25775 -1.5812404453754425e-02</internalNodes>
      <leafValues>
        5.0724637508392334e-01 -6.4125561714172363e-01</leafValues></_>
    <_>
      <internalNodes>
        0 -1 5046 2.1754312328994274e-03</internalNodes>
      <leafValues>
        -5.4204970598220825e-01 1.4618664979934692e-01</leafValues></_>
    <_>
      <internalNodes>
        0 -1 6723 -9.4181708991527557e-03</internalNodes>
      <leafValues>
        1.3983888924121857e-01 -6.9892442226409912e-01</leafValues></_>
    <_>
      <internalNodes>
        0 -1 155017 -1.7788945115171373e-04</internalNodes>
      <leafValues>
        -5.1580488681793213e-01 1.8286296725273132e-01</leafValues></_>
    <_>
      <internalNodes>
        0 -1 54308 1.0003983043134212e-02</internalNodes>
      <leafValues>
        -1.9920012354850769e-01 5.0868642330169678e-01</leafValues></_>
    <_>
      <internalNodes>
        0 -1 69722 -4.2118854820728302e-02</internalNodes>
      <leafValues>
        7.7452844381332397e-01 -1.1574991047382355e-01</leafValues></_>
    <_>
      <internalNodes>
        0 -1 28696 -9.9210124462842941e-03</internalNodes>
      <leafValues>
        -7.5203943252563477e-01 1.5539547801017761e-01</leafValues></_>
    <_>
      <internalNodes>
        0 -1 1640 3.4735649824142456e-02</internalNodes>
      <leafValues>
        -1.8244339525699615e-01 5.7576751708984375e-01</leafValues></_>
    <_>
      <internalNodes>
        0 -1 69440 4.5570293441414833e-03</internalNodes>
      <leafValues>
        -2.3395951092243195e-01 3.9318850636482239e-01</leafValues></_>
    <_>
      <internalNodes>
        0 -1 70183 -4.5510396361351013e-02</internalNodes>
      <leafValues>
        6.9183015823364258e-01 -1.3657627999782562e-01</leafValues></_>
    <_>
      <internalNodes>
        0 -1 200 1.1925773695111275e-02</internalNodes>
      <leafValues>
        -3.9237058162689209e-01 2.4240235984325409e-01</leafValues></_></weakClassifiers></stage11>
</opencv_storage>
