<?xml version="1.0"?>
<opencv_storage>
<stage3>
  <maxWeakCount>6</maxWeakCount>
  <stageThreshold>-1.2738897800445557e+00</stageThreshold>
  <weakClassifiers>
    <_>
      <internalNodes>
        0 -1 17233 2.4083297699689865e-02</internalNodes>
      <leafValues>
        -7.6078915596008301e-01 5.3333336114883423e-01</leafValues></_>
    <_>
      <internalNodes>
        0 -1 33833 7.2555067017674446e-03</internalNodes>
      <leafValues>
        -4.0494728088378906e-01 5.8746761083602905e-01</leafValues></_>
    <_>
      <internalNodes>
        0 -1 162115 -4.3993964791297913e-02</internalNodes>
      <leafValues>
        -4.3621501326560974e-01 4.6604079008102417e-01</leafValues></_>
    <_>
      <internalNodes>
        0 -1 12562 3.5122334957122803e-03</internalNodes>
      <leafValues>
        -4.7126874327659607e-01 3.8881987333297729e-01</leafValues></_>
    <_>
      <internalNodes>
        0 -1 64278 -2.3571630008518696e-03</internalNodes>
      <leafValues>
        6.5913909673690796e-01 -2.6864328980445862e-01</leafValues></_>
    <_>
      <internalNodes>
        0 -1 9303 2.3718836903572083e-01</internalNodes>
      <leafValues>
        2.0788505673408508e-01 -8.3847081661224365e-01</leafValues></_></weakClassifiers></stage3>
</opencv_storage>
