<?xml version="1.0"?>
<opencv_storage>
<stage1>
  <maxWeakCount>7</maxWeakCount>
  <stageThreshold>-1.1788485050201416e+00</stageThreshold>
  <weakClassifiers>
    <_>
      <internalNodes>
        0 -1 98640 -1.5473935054615140e-03</internalNodes>
      <leafValues>
        -7.1393644809722900e-01 3.2867133617401123e-01</leafValues></_>
    <_>
      <internalNodes>
        0 -1 3268 5.8848746120929718e-02</internalNodes>
      <leafValues>
        -3.8075226545333862e-01 6.8705809116363525e-01</leafValues></_>
    <_>
      <internalNodes>
        0 -1 13531 -1.8255296349525452e-01</internalNodes>
      <leafValues>
        -5.6874066591262817e-01 3.3332374691963196e-01</leafValues></_>
    <_>
      <internalNodes>
        0 -1 129971 -8.1208078190684319e-03</internalNodes>
      <leafValues>
        4.1660812497138977e-01 -4.1423767805099487e-01</leafValues></_>
    <_>
      <internalNodes>
        0 -1 98311 -1.9743377342820168e-03</internalNodes>
      <leafValues>
        5.9332567453384399e-01 -2.4215328693389893e-01</leafValues></_>
    <_>
      <internalNodes>
        0 -1 41498 -1.2623823713511229e-03</internalNodes>
      <leafValues>
        5.5807417631149292e-01 -2.1468287706375122e-01</leafValues></_>
    <_>
      <internalNodes>
        0 -1 57224 1.6851467080414295e-03</internalNodes>
      <leafValues>
        -2.5258132815361023e-01 5.2600365877151489e-01</leafValues></_></weakClassifiers></stage1>
</opencv_storage>
