<?xml version="1.0"?>
<opencv_storage>
<stage5>
  <maxWeakCount>9</maxWeakCount>
  <stageThreshold>-1.4233882427215576e+00</stageThreshold>
  <weakClassifiers>
    <_>
      <internalNodes>
        0 -1 1222 1.6635764390230179e-02</internalNodes>
      <leafValues>
        -8.6688309907913208e-01 -8.6956517770886421e-03</leafValues></_>
    <_>
      <internalNodes>
        0 -1 26632 7.1368128061294556e-02</internalNodes>
      <leafValues>
        -3.4725108742713928e-01 7.4354088306427002e-01</leafValues></_>
    <_>
      <internalNodes>
        0 -1 12834 7.6921947766095400e-04</internalNodes>
      <leafValues>
        -4.4411662220954895e-01 2.7517917752265930e-01</leafValues></_>
    <_>
      <internalNodes>
        0 -1 8962 -4.6048248186707497e-03</internalNodes>
      <leafValues>
        -7.7845942974090576e-01 1.5054264664649963e-01</leafValues></_>
    <_>
      <internalNodes>
        0 -1 45562 -4.6311025507748127e-03</internalNodes>
      <leafValues>
        5.8503621816635132e-01 -1.8420849740505219e-01</leafValues></_>
    <_>
      <internalNodes>
        0 -1 29562 -1.0175181552767754e-02</internalNodes>
      <leafValues>
        7.4810904264450073e-01 -1.8569438159465790e-01</leafValues></_>
    <_>
      <internalNodes>
        0 -1 53933 1.6840420663356781e-02</internalNodes>
      <leafValues>
        -1.4411227405071259e-01 6.4549589157104492e-01</leafValues></_>
    <_>
      <internalNodes>
        0 -1 7462 -5.1217817235738039e-04</internalNodes>
      <leafValues>
        -6.2386721372604370e-01 1.8139103055000305e-01</leafValues></_>
    <_>
      <internalNodes>
        0 -1 77332 -3.8820761255919933e-03</internalNodes>
      <leafValues>
        6.6446757316589355e-01 -1.6295786201953888e-01</leafValues></_></weakClassifiers></stage5>
</opencv_storage>
